the -0.054295 0.054451 0.031445 -0.115970 1.350866 0.044834 0.134361 0.286435 -0.368872 0.199514 -0.329590 0.588288 0.230237 0.398055 0.106285 -0.412072 -0.355571 -0.288397 -0.014682 0.214857 -0.159034 0.189378 0.028121 0.694847 0.532789 0.463728 -0.097276 -0.139384 -0.217256 -0.046899 -0.341108 -0.483307 0.135295 -0.609059 0.405101 -0.378336 -0.228313 -0.196781 -0.812280 1.511357 -0.220411 -0.120808 0.355812 0.052776 0.210246 -0.120330 0.139140 -0.582122 0.084966 0.035267 0.813650 0.439201 0.700378 0.588874 1.244250 0.006569 -0.057928 0.457555 0.611629 -0.241150 -0.682592 0.276843 0.177166 0.583705 0.056296 0.146629 0.333232 0.156787 -0.259887 -0.358774 -0.675830 0.458806 -0.128316 -0.067181 0.288134 -0.215924 -0.220835 0.052786 -0.175624 0.026581 -0.400125 -0.176287 -0.153618 0.320256 -0.066052 0.042707 1.091864 0.227609 -0.095257 0.235313 0.180713 -0.908780 -0.675290 0.068736 0.165028 0.968186 0.409976 0.361344 0.076558 -0.665365 -0.678697 -0.097014 -0.008949 -0.436126 0.074074 0.765044 -0.836769 -0.003875 0.547280 0.452292 0.500924 -0.357930 -0.798319 0.473104 0.149679 0.351156 1.051651 0.472451 0.000668 0.128589 -0.679114 0.593217 -0.334486 0.412735 0.135648 0.770096 0.388963 -0.333878 -0.081575 -0.212545 0.144557 0.209980 -0.974098 0.190087 -0.108099 -0.389593 -0.122384 0.227025 0.574597 -0.613363 -0.033562 0.067324 -1.081443 0.034546 -0.534005 -0.851526 -0.230040 -0.420562 -0.466552 -1.109390 0.314576 -0.364139 0.121827 -0.525966 0.383875 0.531133 -0.984534 0.242594 -0.134738 -0.132931 -0.167675 -0.003088 -0.060284 -0.074948 0.022825 0.462359 -0.136896 -0.091236 -0.267389 -0.189698 0.918609 -0.498526 -0.858711 -0.464174 0.677600 -0.111025 0.139915 0.628737 0.179470 0.120040 0.080047 -0.359483 -0.272218 -0.378207 0.063061 0.145289 -0.230734 0.355816 0.057076 0.823996 -0.184949 -0.047003 -0.228384 -0.857289 0.600726 -0.309576 0.113260 0.404594 -0.811034 0.066283 -1.214490 -0.145907 -0.547006 0.336038 0.810255 -0.515147 -0.081171 -0.387314 -1.538828 0.180207 -0.169055 0.475111 -0.463953 -0.072964 0.301209 0.697851 0.680635 -0.562889 0.845468 0.519660 -0.362470 -0.272588 0.125846 -0.300033 -0.203956 0.716037 0.584115 0.731208 0.632444 -0.605806 0.553455 -0.331936 0.122641 0.491683 -0.184169 -0.651983 -0.054661 -0.692324 -0.176881 -0.219971 -0.501269 0.374903 -0.298203 0.241687 -0.834715 -0.028552 0.614771 -0.424243 -0.375677 0.109359 -0.395067 -0.297900 0.145221 0.996021 -0.178308 0.090638 -0.387736 0.446025 -0.501500 0.804873 0.381820 0.813426 -0.740828 -0.034785 -0.229442 -0.668564 0.880409 0.497112 -0.104850 0.487707 -0.264648 -0.306768 -0.875237 0.413249 0.623737 -0.506970 -0.045843 -0.004482 0.056957 -0.259607 -0.792532 -0.354905 0.888677 -0.391518 0.284643 0.088839 0.306591 0.284985 -0.305633 -0.148917 0.551190 -0.490667 1.096698 0.009211 0.074326 -0.407902 -0.494354 0.313145 0.751814 -0.196547
of 0.116023 0.712574 -0.259978 -0.153089 1.365990 -0.255471 -0.377277 0.215668 -0.276491 0.955521 -0.187534 0.271814 -0.309190 0.283054 0.155477 -0.707153 -0.323650 -0.070901 -0.136780 0.299179 -0.093294 -0.179001 -0.743206 0.921914 0.229594 0.946661 -0.151777 -0.373543 0.213300 -0.092323 -0.053221 -0.476966 -0.184725 -0.355942 -0.116985 0.434190 0.105200 -0.120263 -0.727527 1.416455 -0.348580 0.188315 0.378339 0.351193 -0.176935 -0.483263 -0.446275 0.777777 0.010511 0.431836 0.506030 -0.021335 0.447268 0.248313 1.104071 0.041833 -0.488585 0.390312 0.044869 -0.185532 -0.386162 -0.098726 0.616640 0.597126 -0.723788 0.311716 0.277135 -0.708517 -0.744100 -0.191285 -0.797996 0.088564 -0.161742 0.128196 -0.299018 0.280836 0.384676 0.253611 0.071201 0.064823 -0.067105 -0.767543 0.865156 0.399127 0.685728 0.493420 0.834202 -0.378864 0.252440 -0.214415 -0.135573 -0.326455 -0.192905 -0.046570 -0.006024 0.255184 0.693186 -0.037445 0.271233 -0.268202 -0.609063 -0.147444 0.359243 -0.302497 -0.483307 0.873045 -0.872338 -0.010287 -0.174880 0.327214 0.802685 -0.354961 -0.346289 0.731456 0.099506 -0.661762 0.749396 -0.005500 -0.602653 0.524670 -0.319014 0.215821 0.299646 0.202234 0.203078 1.048640 -0.224371 -0.080771 -0.372167 -0.269012 -0.345487 -0.304054 -1.166094 -0.164940 0.630092 0.388973 -0.436501 0.033615 0.026985 -0.147899 -0.220402 0.026781 -1.117539 -0.041207 -0.738343 -0.475589 -0.814200 0.375954 -0.585518 -0.825959 0.118536 -0.166779 0.122819 -0.244619 -0.049408 0.100984 -0.467380 0.776321 -0.219998 -0.461355 0.190135 -0.112583 0.210807 -0.205093 0.350858 0.209324 -0.282079 0.090776 -0.164814 -0.011215 -0.144368 -0.444527 -0.188044 0.358715 0.374828 -0.319457 0.540570 0.246948 0.393937 0.263639 0.014848 -0.178524 0.388901 -0.927211 -0.226962 -0.246774 -0.047588 -0.109486 -0.233353 0.643659 0.009009 0.246719 -0.017175 -0.797819 0.477931 -0.252618 0.473065 -0.569966 -0.547796 -0.343445 -1.116985 -0.137672 -0.028483 -0.360002 0.735760 -0.418309 0.127816 -0.189338 -1.152383 -0.351095 0.584234 -0.095371 0.693475 0.326287 -0.234317 0.330253 0.024143 -0.551675 0.159182 0.479642 0.185409 -0.446064 -0.311186 0.241476 -0.065009 -0.141586 0.398094 0.724437 0.091062 -0.377715 0.617165 0.315459 -0.526623 -0.025504 -0.172994 -0.348940 -0.088052 -0.455338 -0.004407 0.066184 0.110953 0.504513 0.072395 0.766644 -0.671632 -0.439241 0.698214 -0.560552 -0.055972 -0.756595 0.018819 -0.449599 -0.459287 0.623971 -0.278685 0.235945 -0.953565 -0.046809 -0.467536 -0.214523 0.064996 1.131022 -0.438221 0.412220 -0.642906 -0.721956 0.403495 0.074161 0.059807 0.568460 0.162184 0.628708 -0.842825 0.941570 0.149198 -0.561662 0.051957 0.040518 -0.138976 0.639630 -1.051443 -0.004636 0.862747 -0.478685 0.148448 0.259615 0.381606 0.050549 -0.025677 0.099092 0.247007 0.202808 0.557104 -0.690717 -0.235369 -0.167722 -0.278004 0.329584 -0.254768 -0.738520
and -0.300501 1.092368 -0.072551 -0.206144 0.529763 0.005620 0.034467 0.138876 0.238627 0.158581 -0.778197 0.595734 0.458140 0.500890 0.118053 0.117712 -0.513846 -0.202524 -0.132780 0.907154 -0.403581 0.404597 0.030842 0.051876 -0.310225 0.112040 -0.842105 -0.567878 -0.131094 -0.171514 -0.390904 0.283689 0.644211 -0.665159 0.404039 0.672091 0.078786 -0.344462 -0.487680 0.943026 0.242814 -0.188611 0.189203 0.284477 0.564649 -0.746116 -0.384385 0.074721 -0.893500 0.571290 0.444200 0.008361 0.251724 0.640148 1.330993 -0.466532 0.074931 0.128306 0.948824 0.087154 -0.048647 0.378964 0.420472 0.961801 -0.305119 0.136585 0.257144 -0.094946 -0.134521 -0.329167 -0.038906 0.092778 -0.583450 0.419748 0.372716 -0.115575 0.294759 -0.152560 -0.445163 0.333493 0.636700 0.175332 0.041577 0.282494 0.396871 -0.275280 1.073077 0.593304 -0.282669 0.478404 0.370309 -1.190671 0.094824 -0.374864 0.321094 0.032856 0.548772 -0.184459 -0.244079 -1.208395 -0.395361 -0.291048 -0.011895 0.264199 -0.612023 0.715210 -0.802041 0.708380 -0.134618 -0.273543 -0.419383 -0.347886 -0.512172 1.387299 0.145660 0.562865 0.136505 0.439657 0.253199 0.072735 -0.057724 0.401079 0.189951 -0.097262 0.715365 0.001502 0.189708 -0.184596 -0.389597 0.223952 0.328545 -0.100111 -0.765109 -0.096910 0.251930 0.871272 -0.305082 -0.010687 -0.006448 0.274385 -0.189633 0.245972 -0.299460 -0.472153 0.051179 0.135886 -1.448462 0.447545 -0.443093 -0.436367 0.822411 0.104455 -0.857830 0.177068 -0.067315 -0.442995 -0.540760 0.744975 0.160659 -0.859644 0.191765 -0.184619 -0.602110 -0.307728 -0.165741 0.766324 -0.010708 -0.074477 -0.382957 0.142919 0.047253 -0.137027 -0.687433 -0.291376 0.252538 -0.697123 0.227057 0.646627 0.124664 -0.236732 -0.249153 0.173230 -0.589844 -0.451975 -0.175382 0.743774 0.350958 0.071652 -0.928019 0.603981 -0.272070 -0.544946 -0.318334 0.208297 0.366109 -0.120712 -1.063722 0.295981 -0.408573 0.158749 0.078908 -0.206385 -0.633871 -0.882640 1.171700 -0.637312 0.282570 -0.038301 -0.923562 -0.018235 -0.547463 0.270582 0.565760 -0.318600 -0.281741 0.111623 0.509564 -0.380989 0.372935 0.342421 -0.748175 0.842002 0.056595 -0.108167 -0.133795 0.440633 0.062663 -0.017934 0.039093 0.245516 -0.173236 0.576535 -0.816115 -0.092653 -0.899618 -1.024441 0.206576 -0.431794 0.087416 0.012209 -0.196339 -0.048123 0.139475 0.485841 -0.343278 -0.262347 -0.129494 -0.406176 -0.559962 0.208966 -0.288705 -0.791633 -0.599839 0.327110 -0.077735 0.787256 -0.695589 0.198787 0.861260 -0.706503 -0.101256 0.036879 -0.484246 -0.205315 0.395790 -0.510651 0.712929 0.201578 -0.394743 0.515586 -0.629103 0.498653 -0.618705 0.548348 0.697740 -0.894153 0.519249 -0.385342 -0.067001 0.127062 -0.714118 0.486998 1.366467 0.142273 0.346075 0.256518 -0.019172 -0.236962 -0.724734 0.259240 0.014518 0.902778 0.329351 -0.577590 -0.186497 0.141281 -0.756080 0.369134 -0.450985 -0.423353
to 0.348271 0.309678 -0.393893 0.286028 1.360146 0.646824 -0.516379 0.450310 0.272262 -0.532481 0.515755 0.432993 0.173354 -0.646734 -0.090716 0.152722 0.397180 -0.611896 -0.172153 0.983033 -0.031958 0.339524 -0.386097 0.692467 0.325001 0.144656 0.090636 -0.980168 0.182002 -0.075568 -0.670680 -0.335148 -0.317145 -0.331082 -0.559111 -0.041768 -0.203920 0.415009 -0.363960 1.218444 0.015130 -0.148722 -0.183974 1.198224 0.299732 -0.323312 -0.686613 0.612864 -0.514667 0.481291 -0.199993 -0.041961 -0.191745 0.297373 1.313093 -0.140172 0.442863 -0.268770 1.142804 -0.074397 -0.303204 0.505501 0.358074 -0.071999 -0.109389 0.518929 0.738952 -0.665128 0.314397 0.585307 -0.837368 0.450739 -0.267786 0.195740 -0.248994 0.400080 0.670784 -0.139983 -0.483070 0.142721 0.277290 0.293310 -0.026442 0.167587 -0.088899 0.110934 0.908484 -0.302948 0.242150 -0.053335 0.349492 -0.226624 -0.144135 0.105404 0.414318 0.343887 0.117295 -0.445539 0.036856 -0.495512 -0.694274 0.312993 -0.144056 -0.427328 -0.643374 1.198930 -0.127576 0.569788 -0.226766 -0.070409 0.064568 -0.339113 -0.782942 1.255915 -0.084633 0.512535 1.081922 0.271671 0.243701 0.392513 0.272656 0.378774 -0.429393 -0.238322 0.940387 0.555011 0.472903 -0.086701 -1.278635 0.265963 -0.373069 -0.666699 -0.340917 -0.863273 0.049839 -0.111202 -0.495881 -0.135337 0.357853 -0.131545 0.067628 0.670863 -1.412277 -0.118459 -0.012129 -0.528917 -0.145880 -0.136427 -0.250505 -0.818904 -0.285554 0.149215 0.251128 -0.230452 -0.020311 0.333539 -0.606819 0.133470 -0.067954 -1.281970 -0.163610 -0.023105 0.467568 0.389613 0.647310 0.815295 0.740791 0.471753 -0.250387 0.789143 0.251474 -1.208494 -0.820529 -0.507729 1.232179 -0.052216 0.234283 0.393504 0.221886 0.242906 -0.058580 0.335591 -0.040038 -0.458026 0.552392 0.822246 0.179993 1.101106 -0.494816 0.569462 0.265010 0.113002 0.102348 0.024982 0.177243 -0.126297 -0.645310 -0.925492 -0.175461 -0.796965 -1.021987 -0.528575 -0.455721 -0.196135 1.449138 -0.760162 0.513729 -0.212038 -1.298967 -0.597881 -0.597409 0.326444 0.164485 -0.743490 -0.565172 0.859797 -0.219208 -0.407380 -0.048091 0.042037 0.088211 0.159044 0.216569 -0.044949 -0.442229 0.708471 0.265544 -0.188806 0.354685 -0.631511 0.349560 0.106065 -0.190040 -0.046352 0.108000 -0.393790 -0.116306 -0.811632 0.378140 -0.494215 0.172373 0.508800 -1.030876 0.214749 -0.586670 -0.406131 0.796412 -0.524163 -0.126941 -0.320382 -0.134541 0.247884 -0.286699 0.570410 0.237756 -0.220218 -1.109957 0.808208 0.337026 0.200411 0.043559 0.626304 -0.895686 -0.614152 -0.068950 -0.100479 0.703881 -0.091686 -0.418805 0.303696 -0.743334 0.430693 -0.794303 0.631659 -0.013928 -0.929389 0.605945 -0.549294 0.279580 0.205857 -1.388872 0.013566 0.778064 -0.781393 -0.126147 -0.189886 0.005093 -0.138819 0.252458 -0.736286 0.079207 0.466194 0.631165 0.071064 0.560027 -0.353329 -0.462528 0.335354 0.328354 -0.365457
a 1.027203 0.430437 -0.068913 0.240380 1.233824 0.358071 -0.225424 0.174943 -0.250969 -0.000099 0.061774 0.363358 0.174202 -0.262136 0.486285 0.742492 -0.079366 0.391793 -0.155320 0.789115 0.257481 0.311345 -0.523515 0.380219 0.836640 0.645070 -0.491911 -1.194101 -0.754720 0.057966 0.305467 0.251078 0.133069 0.442377 0.178009 -0.128688 -0.490260 0.201420 -1.086315 1.152511 -0.264771 -0.289300 0.538211 -0.268358 0.264691 -0.615021 -0.010647 -0.066593 0.057535 0.672385 0.892339 0.142817 -0.031726 -0.334604 1.506414 0.766652 -0.138645 0.320928 0.083893 -0.205198 -0.436199 0.664343 0.778625 0.205239 0.752253 0.654151 0.264582 -0.663320 0.097644 -0.511079 -0.631863 -0.029365 -0.391561 0.145040 0.654516 0.068813 0.216181 -0.191633 -0.310108 -0.074275 -0.300288 0.168989 0.145853 0.382596 -0.212247 0.141675 1.151875 0.398768 -0.118381 0.177833 -0.466160 -0.111061 0.075245 -0.100517 0.692273 0.401103 -0.020824 0.022433 0.321246 -0.464879 -0.626320 -0.492751 -0.337363 0.302440 -1.057842 0.469462 -0.799622 0.145374 -0.188624 0.848937 0.593662 -0.241500 0.480068 0.711389 -0.714903 0.114532 0.734258 0.471612 -0.801675 1.489638 -0.872418 0.313138 -0.059213 -0.231852 0.315655 1.224785 -0.194894 -0.782975 0.182266 -0.133870 -0.059436 -0.281897 -0.688626 0.715966 0.705974 0.445805 -0.722869 0.301953 -0.216836 0.248961 -0.177596 -0.313806 -1.458587 -0.447380 0.072643 -0.042818 -0.887777 0.104183 -0.323170 -0.717387 -0.561493 0.500860 -0.314391 0.273297 -0.543858 -0.275370 -0.015813 0.206155 -0.490989 -0.934606 -0.632664 -0.695765 0.343205 -0.271319 0.163747 -0.213474 0.222767 0.083305 -0.769302 -0.162319 0.063507 -0.475921 -1.255258 -0.422911 -0.114403 0.354777 0.086002 0.332960 0.537608 -0.137483 0.309025 -0.215383 -0.158975 -0.559638 -0.156042 0.395822 0.426937 -0.239166 -0.509566 -0.012051 0.102758 0.278972 -0.333152 -0.715422 0.498823 -0.127065 -0.565442 -0.067462 -0.939471 -0.032256 -0.879653 -0.071734 -0.527753 -0.619449 0.816941 -0.388603 0.514628 0.698919 -1.154954 0.235323 -0.997557 -0.171917 0.130485 0.216286 -0.066525 0.262546 0.736954 -0.338782 1.769039 -0.393980 0.190462 -0.482053 -0.213103 0.671165 -0.438486 -0.276190 0.945580 0.314573 0.910558 0.248799 -0.017738 0.009530 -0.440252 0.227569 -0.041052 -0.263616 -0.130229 -0.504849 0.132930 -0.197130 -0.367062 0.510583 -0.649006 0.390772 -0.076638 -0.093362 0.068698 -0.060743 -0.638861 0.209074 0.075449 0.627368 -0.783745 0.446340 0.414841 0.577640 -0.667964 0.766570 0.237475 -0.081601 -0.378241 1.323241 -0.600482 -0.048470 0.009137 -0.211274 0.535890 0.385386 0.430871 1.023848 -0.214029 0.199173 -0.321710 0.661411 -0.166369 -0.580506 0.148006 -0.211320 -0.581074 -0.271401 -1.455007 -0.117528 0.771394 0.183319 -0.087657 0.278021 0.376613 0.847043 -0.626704 0.117871 -0.026587 0.195926 0.269175 0.592383 0.020815 -0.494838 0.184472 0.024284 -0.263203 -0.734923
was 0.002828 1.461334 -0.237608 -0.730042 1.414887 0.835155 -0.160809 0.452069 -0.068362 -0.694788 -0.205646 0.141029 0.505881 -0.447253 0.181352 -0.144226 0.395119 -0.162069 0.392845 0.223152 0.005238 0.557631 0.134235 0.390847 0.866260 0.322075 -0.284166 -0.614897 -0.486926 -0.271924 0.146663 -1.159805 0.284726 0.164966 0.025215 0.879571 -0.398846 0.124411 -1.138164 0.798134 0.369794 -0.099272 0.285203 1.070228 -0.286910 0.097995 -0.921467 0.801234 -0.057728 0.822346 1.764990 -0.055455 0.981264 0.541616 1.040802 0.284845 -0.579098 0.395596 -0.241697 -0.378161 -1.073403 0.314208 0.350976 -0.104602 0.430876 0.045236 0.983600 -0.544802 -0.690241 -0.299667 -0.671510 0.294954 0.336948 0.417064 0.208437 0.244264 0.383044 0.599715 -0.798719 0.175728 -0.486246 0.650496 0.329200 0.372869 0.064762 -0.416952 0.196694 -0.150938 0.054145 0.447612 -0.005045 -0.378421 -0.492554 0.125556 0.356300 -0.228853 -0.271134 -0.028443 -0.008996 -0.723751 -0.444288 -1.284672 -0.122850 0.477532 -0.531376 0.357559 -0.717073 -0.340457 -0.376423 -0.310994 -0.269278 -0.529330 -0.645508 0.643484 -0.037226 0.074905 -0.300770 0.189620 0.925627 1.532744 0.312534 0.323114 0.548152 -0.001302 0.752328 0.682839 0.066086 -1.185653 -0.535181 -0.499082 0.359522 -1.066736 -0.475931 -0.615528 -0.685249 0.022192 -0.819976 -0.543418 0.461279 0.566636 0.465009 0.618917 -0.824822 0.496603 -0.244157 0.153384 0.443771 -0.253388 -0.867603 -0.618874 0.127371 -0.247030 -0.321588 0.279375 0.420932 1.123486 -0.534656 0.071727 0.147464 -1.273568 -0.774419 0.377223 0.158333 0.056382 0.131036 -0.306700 0.388074 0.763091 0.022151 0.923361 -0.105863 -0.689585 -0.332365 0.301835 -0.028674 -0.360556 0.767051 0.569685 0.418488 -0.609151 0.196644 -0.935340 0.048317 0.232161 -0.092919 0.218903 -0.974411 -0.364785 -0.170968 0.258796 0.447112 0.596502 -0.139542 -0.309393 0.987438 0.260705 -0.722093 0.596287 -0.681913 0.330867 -0.483886 -0.243444 -0.434153 0.456325 0.593073 -0.222069 -0.169353 -0.078503 -1.021057 0.301737 0.260271 0.755757 0.143669 -0.214110 0.139378 -0.282373 0.288939 -1.251504 0.952786 0.200010 0.342289 -0.077736 -0.433541 0.112271 -1.355760 0.722947 0.671292 1.055327 0.462515 0.177011 0.305029 -0.076270 0.319401 0.015508 -0.450298 -0.296029 -0.088441 -0.428446 -0.358973 0.426215 -0.524397 -0.094515 -0.390463 0.343325 -1.111822 0.277277 1.157201 -0.746431 0.282219 0.139867 0.341146 0.340748 -0.482481 0.045617 -0.099190 0.409951 -0.573151 1.083326 -0.622401 0.342679 -0.600204 0.194061 0.371470 0.127811 0.699807 -0.230486 1.047880 -0.069327 0.290493 0.244095 -0.004236 -0.287221 0.291361 0.319003 0.071029 -0.591800 -0.055482 -0.346001 -0.514404 0.081530 -0.992675 -0.429709 0.218090 0.136355 0.060411 0.170026 0.739971 0.501130 -0.202121 0.272200 -0.025218 0.742282 0.768436 0.516523 0.042133 -0.265951 -0.265590 -0.457720 0.523951 -0.265662
The 0.943185 1.192020 -0.370797 -0.924915 0.786784 0.662737 -0.381202 -0.141366 -1.098281 0.128350 -0.296493 0.766991 0.372326 0.141404 0.001960 0.403220 0.525992 0.165644 -0.139153 0.225929 0.130230 0.391410 -0.183140 0.846654 0.273098 -0.417491 0.333127 -0.525556 -0.911754 -0.173890 -0.217375 -0.125792 0.420229 -0.755748 0.617526 0.335939 0.819813 -1.265511 -0.465912 0.475784 -0.017677 -0.074477 0.161073 0.191203 -0.039948 -0.606214 -1.227176 0.970900 0.215195 0.142882 -0.218871 -0.360114 1.008615 0.798352 0.501988 -0.389921 -0.558075 0.266713 0.451498 -0.786003 0.310715 0.198666 1.005686 0.558639 0.163760 0.655805 0.000910 -0.682474 -0.238433 0.157659 -0.386189 0.736025 0.428309 0.223172 0.638945 0.261252 0.271970 0.200986 -0.102366 -0.617934 -0.620712 0.123491 -0.279988 0.063414 0.098232 0.057314 0.010268 -0.672719 -0.051783 0.629123 -0.258035 0.412458 -0.079124 0.063602 -0.140284 0.313204 0.864292 0.261513 0.515974 -0.559979 -0.124223 -0.923566 0.348987 0.346176 -0.774160 1.180867 -0.087826 0.444157 0.760726 0.363904 -0.014344 -0.599303 0.396565 -0.404550 -0.339095 -0.279008 0.740595 0.084932 0.331762 -0.116938 0.494846 0.751419 0.748299 0.724447 0.337484 0.127845 -0.440279 0.049166 -0.263036 -0.529104 -0.334155 0.307228 -0.363631 0.039299 -0.368866 0.319680 -0.348483 0.144130 -0.399488 -0.040859 -0.086501 0.468886 -0.909184 0.205071 0.223470 -0.137447 -0.022059 -0.047367 -0.542730 -1.537562 0.062521 -0.484981 -0.386969 0.490037 -0.699788 -0.359620 -0.391585 1.195640 -0.673014 -0.903819 0.189819 0.300842 0.454118 -0.134264 0.946582 -0.423543 0.571112 -0.099954 0.167211 0.187865 0.865537 0.128102 -0.522381 0.328480 0.343850 -0.397420 0.374407 1.369369 0.361879 0.054077 0.667753 0.098088 -0.176944 -0.647340 -0.440077 -0.276048 -0.307416 0.390912 -0.355198 0.050450 0.255946 -0.088051 -0.417649 0.699755 1.097961 0.184476 0.149018 0.221117 -0.794562 -0.355681 -0.698584 -0.284523 -0.675088 -0.314758 0.545803 -0.839900 0.182782 0.006001 -0.576530 -0.115391 0.309473 0.445087 -0.182015 0.395085 0.356673 0.592259 0.485919 -0.547085 0.826263 0.545806 -0.673350 -0.031204 -0.162057 0.083243 0.864753 1.338551 1.292283 0.311329 -0.170048 -0.375001 -0.334908 -0.435064 -0.719459 0.658492 -0.532307 -0.573454 -0.001675 -0.413337 -0.973145 0.256652 -0.027365 0.174428 0.127416 -0.070722 -0.306201 -0.429392 0.578259 -0.652035 -0.719957 -0.134421 0.236133 0.045947 -0.783369 0.105887 0.461308 0.208350 -0.745257 -0.049112 -0.642701 -0.504673 -0.257185 0.415052 -0.425716 0.380150 -0.564787 -0.205514 0.993950 0.116100 0.393187 0.143408 0.304593 0.300851 -0.115461 0.178720 0.321176 -0.634437 -0.073211 -0.315838 0.402549 0.683374 -0.670562 0.202118 0.140863 -0.560253 -0.532654 0.663248 0.206026 -0.379534 -0.035397 0.772946 -0.676264 0.251802 0.895818 -0.517304 -0.520277 0.274772 -0.511993 0.094882 -0.451082 -0.358234